digraph Tree {
node [shape=box] ;
0 [label="perimeter_worst <= 105.95\ngini = 0.474\nsamples = 512\nvalue = [314, 198]\nclass = Ganas"] ;
1 [label="concave points_worst <= 0.159\ngini = 0.1\nsamples = 304\nvalue = [288, 16]\nclass = Ganas"] ;
0 -> 1 [labeldistance=2.5, labelangle=45, headlabel="True"] ;
2 [label="fractal_dimension_worst <= 0.055\ngini = 0.047\nsamples = 293\nvalue = [286, 7]\nclass = Ganas"] ;
1 -> 2 ;
3 [label="gini = 0.0\nsamples = 1\nvalue = [0, 1]\nclass = Jinak"] ;
2 -> 3 ;
4 [label="smoothness_worst <= 0.178\ngini = 0.04\nsamples = 292\nvalue = [286, 6]\nclass = Ganas"] ;
2 -> 4 ;
5 [label="texture_worst <= 30.145\ngini = 0.027\nsamples = 288\nvalue = [284, 4]\nclass = Ganas"] ;
4 -> 5 ;
6 [label="area_se <= 48.975\ngini = 0.008\nsamples = 258\nvalue = [257, 1]\nclass = Ganas"] ;
5 -> 6 ;
7 [label="gini = 0.0\nsamples = 254\nvalue = [254, 0]\nclass = Ganas"] ;
6 -> 7 ;
8 [label="compactness_mean <= 0.063\ngini = 0.375\nsamples = 4\nvalue = [3, 1]\nclass = Ganas"] ;
6 -> 8 ;
9 [label="gini = 0.0\nsamples = 1\nvalue = [0, 1]\nclass = Jinak"] ;
8 -> 9 ;
10 [label="gini = 0.0\nsamples = 3\nvalue = [3, 0]\nclass = Ganas"] ;
8 -> 10 ;
11 [label="radius_worst <= 15.77\ngini = 0.18\nsamples = 30\nvalue = [27, 3]\nclass = Ganas"] ;
5 -> 11 ;
12 [label="concave points_worst <= 0.09\ngini = 0.069\nsamples = 28\nvalue = [27, 1]\nclass = Ganas"] ;
11 -> 12 ;
13 [label="gini = 0.0\nsamples = 23\nvalue = [23, 0]\nclass = Ganas"] ;
12 -> 13 ;
14 [label="compactness_se <= 0.013\ngini = 0.32\nsamples = 5\nvalue = [4, 1]\nclass = Ganas"] ;
12 -> 14 ;
15 [label="gini = 0.0\nsamples = 1\nvalue = [0, 1]\nclass = Jinak"] ;
14 -> 15 ;
16 [label="gini = 0.0\nsamples = 4\nvalue = [4, 0]\nclass = Ganas"] ;
14 -> 16 ;
17 [label="gini = 0.0\nsamples = 2\nvalue = [0, 2]\nclass = Jinak"] ;
11 -> 17 ;
18 [label="texture_se <= 1.409\ngini = 0.5\nsamples = 4\nvalue = [2, 2]\nclass = Ganas"] ;
4 -> 18 ;
19 [label="gini = 0.0\nsamples = 2\nvalue = [2, 0]\nclass = Ganas"] ;
18 -> 19 ;
20 [label="gini = 0.0\nsamples = 2\nvalue = [0, 2]\nclass = Jinak"] ;
18 -> 20 ;
21 [label="texture_worst <= 23.47\ngini = 0.298\nsamples = 11\nvalue = [2, 9]\nclass = Jinak"] ;
1 -> 21 ;
22 [label="gini = 0.0\nsamples = 2\nvalue = [2, 0]\nclass = Ganas"] ;
21 -> 22 ;
23 [label="gini = 0.0\nsamples = 9\nvalue = [0, 9]\nclass = Jinak"] ;
21 -> 23 ;
24 [label="concave points_mean <= 0.049\ngini = 0.219\nsamples = 208\nvalue = [26, 182]\nclass = Jinak"] ;
0 -> 24 [labeldistance=2.5, labelangle=-45, headlabel="False"] ;
25 [label="texture_worst <= 29.13\ngini = 0.48\nsamples = 30\nvalue = [18, 12]\nclass = Ganas"] ;
24 -> 25 ;
26 [label="symmetry_worst <= 0.314\ngini = 0.255\nsamples = 20\nvalue = [17, 3]\nclass = Ganas"] ;
25 -> 26 ;
27 [label="gini = 0.0\nsamples = 17\nvalue = [17, 0]\nclass = Ganas"] ;
26 -> 27 ;
28 [label="gini = 0.0\nsamples = 3\nvalue = [0, 3]\nclass = Jinak"] ;
26 -> 28 ;
29 [label="smoothness_worst <= 0.108\ngini = 0.18\nsamples = 10\nvalue = [1, 9]\nclass = Jinak"] ;
25 -> 29 ;
30 [label="gini = 0.0\nsamples = 1\nvalue = [1, 0]\nclass = Ganas"] ;
29 -> 30 ;
31 [label="gini = 0.0\nsamples = 9\nvalue = [0, 9]\nclass = Jinak"] ;
29 -> 31 ;
32 [label="texture_worst <= 20.645\ngini = 0.086\nsamples = 178\nvalue = [8, 170]\nclass = Jinak"] ;
24 -> 32 ;
33 [label="area_worst <= 951.85\ngini = 0.498\nsamples = 15\nvalue = [7, 8]\nclass = Jinak"] ;
32 -> 33 ;
34 [label="gini = 0.0\nsamples = 7\nvalue = [7, 0]\nclass = Ganas"] ;
33 -> 34 ;
35 [label="gini = 0.0\nsamples = 8\nvalue = [0, 8]\nclass = Jinak"] ;
33 -> 35 ;
36 [label="fractal_dimension_se <= 0.013\ngini = 0.012\nsamples = 163\nvalue = [1, 162]\nclass = Jinak"] ;
32 -> 36 ;
37 [label="gini = 0.0\nsamples = 162\nvalue = [0, 162]\nclass = Jinak"] ;
36 -> 37 ;
38 [label="gini = 0.0\nsamples = 1\nvalue = [1, 0]\nclass = Ganas"] ;
36 -> 38 ;
}